digraph Tree {
node [shape=box] ;
0 [label="doctor_recc_h1n1 <= 0.61\nfriedman_mse = 0.117\nsamples = 20296\nvalue = -0.003"] ;
1 [label="opinion_h1n1_risk <= 2.171\nfriedman_mse = 0.093\nsamples = 16208\nvalue = -0.03"] ;
0 -> 1 [labeldistance=2.5, labelangle=45, headlabel="True"] ;
3 [label="health_insurance <= 0.94\nfriedman_mse = 0.072\nsamples = 11761\nvalue = -0.048"] ;
1 -> 3 ;
21 [label="opinion_h1n1_vacc_effective <= 4.5\nfriedman_mse = 0.039\nsamples = 6214\nvalue = -0.064"] ;
3 -> 21 ;
57 [label="hhs_geo_region_mlyzmhmf <= 0.5\nfriedman_mse = 0.03\nsamples = 5061\nvalue = -0.068"] ;
21 -> 57 ;
65 [label="race_Hispanic <= 0.5\nfriedman_mse = 0.028\nsamples = 4666\nvalue = -0.071"] ;
57 -> 65 ;
69 [label="friedman_mse = 0.025\nsamples = 4414\nvalue = -0.814"] ;
65 -> 69 ;
70 [label="friedman_mse = 0.062\nsamples = 252\nvalue = -0.399"] ;
65 -> 70 ;
66 [label="friedman_mse = 0.059\nsamples = 395\nvalue = -0.435"] ;
57 -> 66 ;
58 [label="opinion_h1n1_sick_from_vacc <= 3.5\nfriedman_mse = 0.078\nsamples = 1153\nvalue = -0.043"] ;
21 -> 58 ;
59 [label="household_adults <= 0.943\nfriedman_mse = 0.068\nsamples = 927\nvalue = -0.056"] ;
58 -> 59 ;
61 [label="friedman_mse = 0.043\nsamples = 326\nvalue = -0.756"] ;
59 -> 61 ;
62 [label="friedman_mse = 0.08\nsamples = 601\nvalue = -0.354"] ;
59 -> 62 ;
60 [label="friedman_mse = 0.118\nsamples = 226\nvalue = 0.067"] ;
58 -> 60 ;
22 [label="opinion_h1n1_risk <= 1.5\nfriedman_mse = 0.108\nsamples = 5547\nvalue = -0.031"] ;
3 -> 22 ;
23 [label="h1n1_concern <= 2.5\nfriedman_mse = 0.076\nsamples = 2665\nvalue = -0.056"] ;
22 -> 23 ;
51 [label="sex_Male <= 0.5\nfriedman_mse = 0.072\nsamples = 2502\nvalue = -0.061"] ;
23 -> 51 ;
53 [label="friedman_mse = 0.057\nsamples = 1331\nvalue = -0.65"] ;
51 -> 53 ;
54 [label="friedman_mse = 0.088\nsamples = 1171\nvalue = -0.346"] ;
51 -> 54 ;
52 [label="friedman_mse = 0.136\nsamples = 163\nvalue = 0.104"] ;
23 -> 52 ;
24 [label="opinion_h1n1_vacc_effective <= 4.5\nfriedman_mse = 0.135\nsamples = 2882\nvalue = -0.007"] ;
22 -> 24 ;
27 [label="opinion_seas_vacc_effective <= 2.5\nfriedman_mse = 0.109\nsamples = 2230\nvalue = -0.022"] ;
24 -> 27 ;
39 [label="friedman_mse = 0.043\nsamples = 303\nvalue = -0.769"] ;
27 -> 39 ;
40 [label="friedman_mse = 0.119\nsamples = 1927\nvalue = -0.092"] ;
27 -> 40 ;
28 [label="education_College Graduate <= 0.5\nfriedman_mse = 0.222\nsamples = 652\nvalue = 0.047"] ;
24 -> 28 ;
41 [label="friedman_mse = 0.203\nsamples = 319\nvalue = -0.008"] ;
28 -> 41 ;
42 [label="friedman_mse = 0.235\nsamples = 333\nvalue = 0.445"] ;
28 -> 42 ;
4 [label="health_insurance <= 0.94\nfriedman_mse = 0.147\nsamples = 4447\nvalue = 0.018"] ;
1 -> 4 ;
5 [label="opinion_h1n1_vacc_effective <= 3.425\nfriedman_mse = 0.104\nsamples = 2763\nvalue = -0.023"] ;
4 -> 5 ;
31 [label="opinion_seas_vacc_effective <= 2.5\nfriedman_mse = 0.05\nsamples = 806\nvalue = -0.067"] ;
5 -> 31 ;
63 [label="friedman_mse = 0.001\nsamples = 114\nvalue = -1.151"] ;
31 -> 63 ;
64 [label="income_poverty_> $75,000 <= 0.5\nfriedman_mse = 0.058\nsamples = 692\nvalue = -0.059"] ;
31 -> 64 ;
67 [label="friedman_mse = 0.05\nsamples = 591\nvalue = -0.636"] ;
64 -> 67 ;
68 [label="friedman_mse = 0.103\nsamples = 101\nvalue = -0.071"] ;
64 -> 68 ;
32 [label="health_worker <= 0.056\nfriedman_mse = 0.126\nsamples = 1957\nvalue = -0.005"] ;
5 -> 32 ;
35 [label="age_group_55 - 64 Years <= 0.5\nfriedman_mse = 0.104\nsamples = 1476\nvalue = -0.023"] ;
32 -> 35 ;
49 [label="friedman_mse = 0.094\nsamples = 1204\nvalue = -0.282"] ;
35 -> 49 ;
50 [label="friedman_mse = 0.143\nsamples = 272\nvalue = 0.215"] ;
35 -> 50 ;
36 [label="friedman_mse = 0.189\nsamples = 481\nvalue = 0.298"] ;
32 -> 36 ;
6 [label="education_< 12 Years <= 0.5\nfriedman_mse = 0.209\nsamples = 1684\nvalue = 0.086"] ;
4 -> 6 ;
11 [label="opinion_h1n1_vacc_effective <= 4.5\nfriedman_mse = 0.212\nsamples = 1489\nvalue = 0.106"] ;
6 -> 11 ;
13 [label="education_College Graduate <= 0.5\nfriedman_mse = 0.213\nsamples = 862\nvalue = 0.057"] ;
11 -> 13 ;
47 [label="friedman_mse = 0.2\nsamples = 495\nvalue = 0.126"] ;
13 -> 47 ;
48 [label="friedman_mse = 0.227\nsamples = 367\nvalue = 0.474"] ;
13 -> 48 ;
14 [label="race_White <= 0.5\nfriedman_mse = 0.203\nsamples = 627\nvalue = 0.173"] ;
11 -> 14 ;
29 [label="friedman_mse = 0.234\nsamples = 108\nvalue = 0.161"] ;
14 -> 29 ;
30 [label="friedman_mse = 0.192\nsamples = 519\nvalue = 0.827"] ;
14 -> 30 ;
12 [label="friedman_mse = 0.162\nsamples = 195\nvalue = -0.33"] ;
6 -> 12 ;
2 [label="opinion_h1n1_vacc_effective <= 4.5\nfriedman_mse = 0.197\nsamples = 4088\nvalue = 0.104"] ;
0 -> 2 [labeldistance=2.5, labelangle=-45, headlabel="False"] ;
7 [label="opinion_h1n1_vacc_effective <= 2.5\nfriedman_mse = 0.205\nsamples = 2391\nvalue = 0.061"] ;
2 -> 7 ;
9 [label="friedman_mse = 0.123\nsamples = 272\nvalue = -0.418"] ;
7 -> 9 ;
10 [label="health_insurance <= 0.94\nfriedman_mse = 0.213\nsamples = 2119\nvalue = 0.078"] ;
7 -> 10 ;
17 [label="child_under_6_months <= 0.041\nfriedman_mse = 0.205\nsamples = 986\nvalue = 0.033"] ;
10 -> 17 ;
37 [label="opinion_seas_vacc_effective <= 4.5\nfriedman_mse = 0.197\nsamples = 789\nvalue = 0.011"] ;
17 -> 37 ;
45 [label="friedman_mse = 0.207\nsamples = 478\nvalue = 0.226"] ;
37 -> 45 ;
46 [label="friedman_mse = 0.176\nsamples = 311\nvalue = -0.201"] ;
37 -> 46 ;
38 [label="friedman_mse = 0.228\nsamples = 197\nvalue = 0.586"] ;
17 -> 38 ;
18 [label="race_White <= 0.5\nfriedman_mse = 0.216\nsamples = 1133\nvalue = 0.117"] ;
10 -> 18 ;
19 [label="friedman_mse = 0.203\nsamples = 222\nvalue = -0.038"] ;
18 -> 19 ;
20 [label="marital_status_Not Married <= 0.5\nfriedman_mse = 0.215\nsamples = 911\nvalue = 0.147"] ;
18 -> 20 ;
25 [label="friedman_mse = 0.203\nsamples = 542\nvalue = 0.824"] ;
20 -> 25 ;
26 [label="friedman_mse = 0.224\nsamples = 369\nvalue = 0.337"] ;
20 -> 26 ;
8 [label="health_insurance <= 0.94\nfriedman_mse = 0.18\nsamples = 1697\nvalue = 0.166"] ;
2 -> 8 ;
15 [label="health_worker <= 0.056\nfriedman_mse = 0.233\nsamples = 596\nvalue = 0.098"] ;
8 -> 15 ;
33 [label="friedman_mse = 0.238\nsamples = 466\nvalue = 0.291"] ;
15 -> 33 ;
34 [label="friedman_mse = 0.202\nsamples = 130\nvalue = 0.848"] ;
15 -> 34 ;
16 [label="opinion_h1n1_risk <= 3.5\nfriedman_mse = 0.148\nsamples = 1101\nvalue = 0.202"] ;
8 -> 16 ;
43 [label="friedman_mse = 0.206\nsamples = 428\nvalue = 0.637"] ;
16 -> 43 ;
44 [label="income_poverty_> $75,000 <= 0.5\nfriedman_mse = 0.109\nsamples = 673\nvalue = 0.231"] ;
16 -> 44 ;
55 [label="friedman_mse = 0.127\nsamples = 467\nvalue = 0.907"] ;
44 -> 55 ;
56 [label="friedman_mse = 0.063\nsamples = 206\nvalue = 1.238"] ;
44 -> 56 ;
}